0.639465
0.321114
-0.348216
-0.0118001
-0.578935
-0.910638
-0.744154
-0.958026
-0.314288
-0.320025
-0.152225
-0.527475
-0.38193
-0.649025
0.589422
-0.994568
-0.361552
0.145717
-1.19262
-0.390947
-0.790386
-0.589202
-0.994995
-0.845465
-1.02712
-0.853305
-0.252636
-0.677849
0.0750355
-0.105918
-0.737907
-0.976731
0.906222
-0.833083
-0.453031
-1.12226
-0.935859
0.264081
0.63867
-0.467242
-1.11192
0.303953
0.267241
-1.28133
-0.0198385
-1.26439
-0.0931606
-1.01264
-1.0994
0.798029
-0.781545
-0.75215
-1.22614
0.532041
-0.263933
-0.241946
-0.425082
0.0274758
-1.17614
-0.881422
-1.01847
-0.885117
-0.244675
-0.0561221
0.153626
-1.16569
0.850852
-1.33216
0.0844234
0.373762
0.260962
-0.776229
-0.918491
-0.0440168
-0.492245
-1.40588
0.650504
-0.235548
-0.678156
-0.671991
-1.04464
-0.881473
-1.15231
0.127942
-1.09584
0.604553
-0.901232
0.17007
-1.06142
0.692825
-0.317357
-0.215941
-1.22457
0.404691
0.494915
-0.607741
-0.93432
-0.978225
-0.672874
0.130267
0.151361
0.218559
-1.29882
-1.1338
0.476018
-0.0953395
0.453569
-0.829952
0.199047
-0.062901
-1.21916
-0.182188
-0.608448
-0.949364
-1.14513
-1.05809
-1.10774
0.404638
-0.493525
-0.120798
-0.0513756
-1.21781
-0.402642
-0.526676
-0.946277
-0.441129
-0.240234
-1.0222
-0.522899
-0.00224602
-1.38102
-0.22669
-0.992948
0.326575
0.954736
-0.97274
-0.514328
-0.26364
0.0791418
-1.01743
-1.02545
-0.851085
0.50171
-0.596816
0.0987746
-1.25751
-0.122021
0.171102
0.449622
0.168395
-1.16917
-0.242871
-0.798385
3.33468
0.846554
1.62229
-3.07634
-2.3115
6.16776
-2.26498
-1.08759
7.93092
-8.32347
-6.47851
1.20862
1.75031
4.47751
5.5129
-6.72909
3.00461
4.42333
-5.19915
-3.91432
-2.14919
-2.2024
-0.412866
-0.623144
0.0885289
-9.84787
0.263603
0.588898
-1.64094
3.26126
1.17972
-2.40352
-2.55186
-2.94482
-2.08264
9.74964
-1.09822
-1.99569
0.136013
-2.96004
